digraph Tree {
node [shape=box, style="filled, rounded", color="black", fontname="helvetica"] ;
edge [fontname="helvetica"] ;
0 [label="mfcc_var <= 0.92\ngini = 0.78\nsamples = 59\nvalue = [10, 19, 23, 27, 16]\nclass = dishwasher", fillcolor="#f4f4fe"] ;
1 [label="rms_var <= 0.01\ngini = 0.76\nsamples = 46\nvalue = [8, 19, 23, 6, 16]\nclass = washing_machine", fillcolor="#f0fdfb"] ;
0 -> 1 [labeldistance=2.5, labelangle=45, headlabel="True"] ;
2 [label="gini = 0.0\nsamples = 11\nvalue = [0, 0, 22, 0, 0]\nclass = washing_machine", fillcolor="#39e5c5"] ;
1 -> 2 ;
3 [label="sc_var <= 0.12\ngini = 0.71\nsamples = 35\nvalue = [8, 19, 1, 6, 16]\nclass = flushing_toilet", fillcolor="#f3fdee"] ;
1 -> 3 ;
4 [label="rms_mean <= 0.54\ngini = 0.45\nsamples = 21\nvalue = [1, 19, 1, 6, 0]\nclass = flushing_toilet", fillcolor="#adef84"] ;
3 -> 4 ;
5 [label="rms_mean <= 0.38\ngini = 0.24\nsamples = 5\nvalue = [1, 0, 0, 6, 0]\nclass = dishwasher", fillcolor="#5d5ae9"] ;
4 -> 5 ;
6 [label="gini = 0.0\nsamples = 1\nvalue = [1, 0, 0, 0, 0]\nclass = washing_hands", fillcolor="#e58139"] ;
5 -> 6 ;
7 [label="gini = 0.0\nsamples = 4\nvalue = [0, 0, 0, 6, 0]\nclass = dishwasher", fillcolor="#3c39e5"] ;
5 -> 7 ;
8 [label="mfcc_mean <= 0.89\ngini = 0.09\nsamples = 16\nvalue = [0, 19, 1, 0, 0]\nclass = flushing_toilet", fillcolor="#82e643"] ;
4 -> 8 ;
9 [label="gini = 0.0\nsamples = 15\nvalue = [0, 19, 0, 0, 0]\nclass = flushing_toilet", fillcolor="#7be539"] ;
8 -> 9 ;
10 [label="gini = 0.0\nsamples = 1\nvalue = [0, 0, 1, 0, 0]\nclass = washing_machine", fillcolor="#39e5c5"] ;
8 -> 10 ;
11 [label="sc_mean <= 0.72\ngini = 0.42\nsamples = 14\nvalue = [7, 0, 0, 0, 16]\nclass = shower", fillcolor="#f090dc"] ;
3 -> 11 ;
12 [label="gini = 0.0\nsamples = 11\nvalue = [0, 0, 0, 0, 16]\nclass = shower", fillcolor="#e539c0"] ;
11 -> 12 ;
13 [label="gini = 0.0\nsamples = 3\nvalue = [7, 0, 0, 0, 0]\nclass = washing_hands", fillcolor="#e58139"] ;
11 -> 13 ;
14 [label="mfcc_mean <= 0.07\ngini = 0.16\nsamples = 13\nvalue = [2, 0, 0, 21, 0]\nclass = dishwasher", fillcolor="#4f4ce7"] ;
0 -> 14 [labeldistance=2.5, labelangle=-45, headlabel="False"] ;
15 [label="gini = 0.0\nsamples = 1\nvalue = [2, 0, 0, 0, 0]\nclass = washing_hands", fillcolor="#e58139"] ;
14 -> 15 ;
16 [label="gini = 0.0\nsamples = 12\nvalue = [0, 0, 0, 21, 0]\nclass = dishwasher", fillcolor="#3c39e5"] ;
14 -> 16 ;
}